-0.05109590 0.06498968 -0.04475609 -0.06798719
-0.18768507 -0.08459772 -0.09046214 0.38920676
0.06576137 0.06798862 -0.08294001 -0.06370696
-0.03816646 0.00535595 0.04631237 -0.17932127
-0.58518806 0.22585706 0.22194707 0.34597225
-0.04223589 0.26181012 -0.15153767 0.30397731
0.09063138 -0.42253567 -0.30119008 0.05835715
-0.01963047 -0.26698412 0.07774095 -0.41363933
0.25613757 -0.18487229 0.04528657 -0.27015811
0.04110000 0.19931621 0.04326333 0.43005564
-0.60002970 -0.53784146 -0.24264556 0.97124489
-0.95987919 -1.07939770 -0.05255722 -1.57354662
0.19307805 1.94010797 -1.68655027 -1.52049109
0.01249404 -0.76366205 0.05840616 -0.59082413
-0.47221404 -0.80811305 0.14008850 -0.42167747
-0.27342625 -0.73857849 -0.14667590 -0.03717553
0.01443898 -0.12529777 0.04320140 -0.06397763
-0.03574807 -0.03906000 -0.05564185 -0.12021782
-0.00278434 -0.28283893 -0.04613663 -0.05598987
-0.51386533 -0.40439393 0.41276561 -0.13292176
1.91498216 -0.89609790 -0.52359503 0.52154797
1.11534682 -1.54839547 -0.38518201 -0.00017280
-0.12897265 -0.62133476 0.11228183 -0.09499470
0.33654917 1.04398070 -0.02863422 -0.04006829
-0.55257899 -0.04066484 0.21262985 0.13892906
-0.59633373 -0.09323932 0.17767232 -0.06033570
0.17839410 -0.64583102 -0.38689527 -0.40230768
0.20704009 0.00791904 -0.26948454 -0.15252184
-0.40878580 -0.07798064 0.14001143 -0.22055779
-0.24967666 0.31995041 0.14704612 -0.14944766
-0.17253482 0.00996875 0.15973675 -0.26509266
0.32053232 0.28684640 -0.34093548 0.03905363
0.09624388 -0.16315548 -0.04853828 -0.04018714
0.50581377 -0.02391523 -0.18565308 -0.06493337
0.67862663 -0.25281493 -0.27609215 -0.06773912
0.18493264 0.32279356 -0.48292138 0.55175144
-0.03356990 0.11850463 0.16501585 0.11423489
-0.23319173 0.29797858 -0.57825830 0.58147918
0.41917605 1.14921362 0.25927261 -0.27132375
0.23288455 0.69779342 0.12339513 -0.00052098
0.07220646 0.74506628 0.23158475 0.09892629
-1.53684716 0.44891543 0.64161742 0.27152196
-0.56579892 -0.47528660 -0.01091279 0.07492555
-1.15161011 0.16564323 0.18780008 1.10006656
0.06369707 -0.31594419 -0.18133431 1.06211708
-0.13438760 -1.34341789 -0.04634798 -0.13185594
0.04165131 0.53803485 0.42108395 -1.71269507
0.20384503 -0.08841272 -0.63804205 0.37638982
-0.16143716 -0.46002151 0.30471545 4.26336247
0.21223550 0.23364793 0.25617101 0.27052968
-0.23463876 -0.40944259 0.42703863 -0.26846251
1.10814856 1.02543554 0.13204422 -0.25477945
0.20127080 0.60737401 -0.01803828 0.13184988
0.12108580 -0.59246859 -0.33544518 0.03834735
0.58302892 1.03283419 0.30121435 -0.00167633
0.25998650 -1.40578518 0.62034619 -1.51900094
-0.18916445 -0.10308163 0.23677890 0.40445870
0.76597614 2.60354233 0.06133900 -0.16706282
0.16919333 0.19485533 0.26777501 0.44184314
1.29962724 0.01333473 -1.09881856 0.78896587
-0.60584947 -0.74957320 0.57304877 -0.10638316
0.16082577 0.16966445 0.28539124 -0.25842651
-0.49820161 -0.26496410 0.72985685 -0.19374143
0.13818498 0.57564749 0.12407399 0.10713560
-0.62369844 -0.26339249 0.20788167 -0.07517390
0.35065075 0.03737284 -0.02567801 0.85239535
0.25150627 0.23249684 -0.12003414 -0.16378132
0.04416539 -0.50655482 -0.03570060 -0.76738688
0.14416542 0.42277729 0.27089161 -0.53906072
0.06143794 -0.25803790 0.26904953 -0.18267947
0.31382853 0.40460070 0.23627051 -0.15504196
-0.21273965 -0.41772882 0.35423576 -0.78283664
1.31485316  -1.19154253 0.54527512  0.90509701
0.57168725 -0.28675769 0.7311475511 0.3021483536
-0.1931749 0.0 0.0 0.0
